digraph Tree {
node [shape=box, style="filled, rounded", color="black", fontname="helvetica"] ;
edge [fontname="helvetica"] ;
0 [label="age <= 25.5\ngini = 0.833\nsamples = 18\nvalue = [3, 3, 3, 3, 3, 3]\nclass = Acoustic", fillcolor="#ffffff"] ;
1 [label="gender <= 0.5\ngini = 0.5\nsamples = 6\nvalue = [0, 0, 3, 3, 0, 0]\nclass = Dance", fillcolor="#ffffff"] ;
0 -> 1 [labeldistance=2.5, labelangle=45, headlabel="True"] ;
2 [label="gini = 0.0\nsamples = 3\nvalue = [0, 0, 3, 0, 0, 0]\nclass = Dance", fillcolor="#39e581"] ;
1 -> 2 ;
3 [label="gini = 0.0\nsamples = 3\nvalue = [0, 0, 0, 3, 0, 0]\nclass = HipHop", fillcolor="#399de5"] ;
1 -> 3 ;
4 [label="gender <= 0.5\ngini = 0.75\nsamples = 12\nvalue = [3, 3, 0, 0, 3, 3]\nclass = Acoustic", fillcolor="#ffffff"] ;
0 -> 4 [labeldistance=2.5, labelangle=-45, headlabel="False"] ;
5 [label="age <= 30.5\ngini = 0.5\nsamples = 6\nvalue = [3, 3, 0, 0, 0, 0]\nclass = Acoustic", fillcolor="#ffffff"] ;
4 -> 5 ;
6 [label="gini = 0.0\nsamples = 3\nvalue = [3, 0, 0, 0, 0, 0]\nclass = Acoustic", fillcolor="#e58139"] ;
5 -> 6 ;
7 [label="gini = 0.0\nsamples = 3\nvalue = [0, 3, 0, 0, 0, 0]\nclass = Classical", fillcolor="#9de539"] ;
5 -> 7 ;
8 [label="age <= 30.5\ngini = 0.5\nsamples = 6\nvalue = [0, 0, 0, 0, 3, 3]\nclass = Jazz", fillcolor="#ffffff"] ;
4 -> 8 ;
9 [label="gini = 0.0\nsamples = 3\nvalue = [0, 0, 0, 0, 0, 3]\nclass = Rock", fillcolor="#e5399d"] ;
8 -> 9 ;
10 [label="gini = 0.0\nsamples = 3\nvalue = [0, 0, 0, 0, 3, 0]\nclass = Jazz", fillcolor="#8139e5"] ;
8 -> 10 ;
}